<?xml version="1.0"?>
<opencv_storage>
<logo2detector type_id="opencv-haar-classifier">
  <size>
    24 24</size>
  <stages>
    <_>
      <trees>
        <_>
          <_>
            <feature>
              <rects>
                <_>
                  3 0 4 16 -1.</_>
                <_>
                  3 0 2 8 2.</_>
                <_>
                  5 8 2 8 2.</_></rects>
              <tilted>0</tilted></feature>
            <threshold>-0.0150896497070789</threshold>
            <left_val>0.9176843166351318</left_val>
            <right_val>-0.8640812039375305</right_val></_></_>
        <_>
          <_>
            <feature>
              <rects>
                <_>
                  9 17 7 4 -1.</_>
                <_>
                  9 19 7 2 2.</_></rects>
              <tilted>0</tilted></feature>
            <threshold>6.2469160184264183e-003</threshold>
            <left_val>-0.9300103187561035</left_val>
            <right_val>0.7716507911682129</right_val></_></_>
        <_>
          <_>
            <feature>
              <rects>
                <_>
                  0 11 8 9 -1.</_>
                <_>
                  2 11 4 9 2.</_></rects>
              <tilted>0</tilted></feature>
            <threshold>7.0147700607776642e-003</threshold>
            <left_val>-0.9863530993461609</left_val>
            <right_val>0.7003421187400818</right_val></_></_></trees>
      <stage_threshold>-1.0937490463256836</stage_threshold>
      <parent>-1</parent>
      <next>-1</next></_>
    <_>
      <trees>
        <_>
          <_>
            <feature>
              <rects>
                <_>
                  2 6 20 11 -1.</_>
                <_>
                  7 6 10 11 2.</_></rects>
              <tilted>0</tilted></feature>
            <threshold>-0.0758688375353813</threshold>
            <left_val>0.8355079889297485</left_val>
            <right_val>-0.9570832848548889</right_val></_></_>
        <_>
          <_>
            <feature>
              <rects>
                <_>
                  9 2 14 6 -1.</_>
                <_>
                  16 2 7 3 2.</_>
                <_>
                  9 5 7 3 2.</_></rects>
              <tilted>0</tilted></feature>
            <threshold>-0.0237213801592588</threshold>
            <left_val>0.8629462718963623</left_val>
            <right_val>-0.8253477215766907</right_val></_></_>
        <_>
          <_>
            <feature>
              <rects>
                <_>
                  6 11 6 6 -1.</_>
                <_>
                  4 13 6 2 3.</_></rects>
              <tilted>1</tilted></feature>
            <threshold>0.0182005092501640</threshold>
            <left_val>-0.8636714816093445</left_val>
            <right_val>0.7051110863685608</right_val></_></_></trees>
      <stage_threshold>-1.0773199796676636</stage_threshold>
      <parent>0</parent>
      <next>-1</next></_>
    <_>
      <trees>
        <_>
          <_>
            <feature>
              <rects>
                <_>
                  6 2 12 20 -1.</_>
                <_>
                  6 7 12 10 2.</_></rects>
              <tilted>0</tilted></feature>
            <threshold>-0.1141301020979881</threshold>
            <left_val>0.7997717261314392</left_val>
            <right_val>-0.8270903825759888</right_val></_></_>
        <_>
          <_>
            <feature>
              <rects>
                <_>
                  16 0 6 16 -1.</_>
                <_>
                  19 0 3 8 2.</_>
                <_>
                  16 8 3 8 2.</_></rects>
              <tilted>0</tilted></feature>
            <threshold>-0.0409309193491936</threshold>
            <left_val>0.9088962078094482</left_val>
            <right_val>-0.8385046720504761</right_val></_></_>
        <_>
          <_>
            <feature>
              <rects>
                <_>
                  0 12 8 8 -1.</_>
                <_>
                  2 12 4 8 2.</_></rects>
              <tilted>0</tilted></feature>
            <threshold>0.0233454909175634</threshold>
            <left_val>-0.7614393234252930</left_val>
            <right_val>0.7880383133888245</right_val></_></_></trees>
      <stage_threshold>-0.8775568008422852</stage_threshold>
      <parent>1</parent>
      <next>-1</next></_>
    <_>
      <trees>
        <_>
          <_>
            <feature>
              <rects>
                <_>
                  2 6 20 3 -1.</_>
                <_>
                  7 6 10 3 2.</_></rects>
              <tilted>0</tilted></feature>
            <threshold>-0.0291690602898598</threshold>
            <left_val>0.6064106225967407</left_val>
            <right_val>-0.8664134740829468</right_val></_></_>
        <_>
          <_>
            <feature>
              <rects>
                <_>
                  16 2 8 12 -1.</_>
                <_>
                  20 2 4 6 2.</_>
                <_>
                  16 8 4 6 2.</_></rects>
              <tilted>0</tilted></feature>
            <threshold>-0.0514308512210846</threshold>
            <left_val>0.8168095946311951</left_val>
            <right_val>-0.8218411803245544</right_val></_></_>
        <_>
          <_>
            <feature>
              <rects>
                <_>
                  7 17 8 4 -1.</_>
                <_>
                  7 19 8 2 2.</_></rects>
              <tilted>0</tilted></feature>
            <threshold>6.9611510261893272e-003</threshold>
            <left_val>-0.9912105202674866</left_val>
            <right_val>0.4308761954307556</right_val></_></_>
        <_>
          <_>
            <feature>
              <rects>
                <_>
                  8 2 16 6 -1.</_>
                <_>
                  16 2 8 3 2.</_>
                <_>
                  8 5 8 3 2.</_></rects>
              <tilted>0</tilted></feature>
            <threshold>-8.9643914252519608e-003</threshold>
            <left_val>0.1805177927017212</left_val>
            <right_val>-0.9319239258766174</right_val></_></_></trees>
      <stage_threshold>-1.0768610239028931</stage_threshold>
      <parent>2</parent>
      <next>-1</next></_>
    <_>
      <trees>
        <_>
          <_>
            <feature>
              <rects>
                <_>
                  1 8 6 16 -1.</_>
                <_>
                  1 8 3 8 2.</_>
                <_>
                  4 16 3 8 2.</_></rects>
              <tilted>0</tilted></feature>
            <threshold>0.0396280512213707</threshold>
            <left_val>-0.6993017196655273</left_val>
            <right_val>0.7952231764793396</right_val></_></_>
        <_>
          <_>
            <feature>
              <rects>
                <_>
                  6 0 18 14 -1.</_>
                <_>
                  15 0 9 7 2.</_>
                <_>
                  6 7 9 7 2.</_></rects>
              <tilted>0</tilted></feature>
            <threshold>0.0800267904996872</threshold>
            <left_val>-0.0411604493856430</left_val>
            <right_val>0.6901456713676453</right_val></_></_>
        <_>
          <_>
            <feature>
              <rects>
                <_>
                  0 16 14 6 -1.</_>
                <_>
                  0 16 7 3 2.</_>
                <_>
                  7 19 7 3 2.</_></rects>
              <tilted>0</tilted></feature>
            <threshold>0.0329071618616581</threshold>
            <left_val>-0.6540790200233460</left_val>
            <right_val>0.5769708752632141</right_val></_></_>
        <_>
          <_>
            <feature>
              <rects>
                <_>
                  10 4 6 6 -1.</_>
                <_>
                  10 6 6 2 3.</_></rects>
              <tilted>0</tilted></feature>
            <threshold>-0.0230432301759720</threshold>
            <left_val>0.6901704072952271</left_val>
            <right_val>-0.4182738065719605</right_val></_></_></trees>
      <stage_threshold>-1.0815089941024780</stage_threshold>
      <parent>3</parent>
      <next>-1</next></_>
    <_>
      <trees>
        <_>
          <_>
            <feature>
              <rects>
                <_>
                  3 0 4 14 -1.</_>
                <_>
                  3 0 2 7 2.</_>
                <_>
                  5 7 2 7 2.</_></rects>
              <tilted>0</tilted></feature>
            <threshold>-0.0175934005528688</threshold>
            <left_val>0.6263175010681152</left_val>
            <right_val>-0.7028794884681702</right_val></_></_>
        <_>
          <_>
            <feature>
              <rects>
                <_>
                  12 1 2 10 -1.</_>
                <_>
                  12 1 1 10 2.</_></rects>
              <tilted>1</tilted></feature>
            <threshold>3.5486579872667789e-003</threshold>
            <left_val>-0.6009560823440552</left_val>
            <right_val>0.1781318932771683</right_val></_></_>
        <_>
          <_>
            <feature>
              <rects>
                <_>
                  12 1 10 2 -1.</_>
                <_>
                  12 1 10 1 2.</_></rects>
              <tilted>1</tilted></feature>
            <threshold>4.4000721536576748e-003</threshold>
            <left_val>-0.9631533026695252</left_val>
            <right_val>0.3352769911289215</right_val></_></_>
        <_>
          <_>
            <feature>
              <rects>
                <_>
                  16 12 8 4 -1.</_>
                <_>
                  18 14 4 4 2.</_></rects>
              <tilted>1</tilted></feature>
            <threshold>0.0374072194099426</threshold>
            <left_val>-0.5132626891136169</left_val>
            <right_val>0.7410970926284790</right_val></_></_>
        <_>
          <_>
            <feature>
              <rects>
                <_>
                  4 19 6 3 -1.</_>
                <_>
                  6 20 2 1 9.</_></rects>
              <tilted>0</tilted></feature>
            <threshold>-4.8998318379744887e-004</threshold>
            <left_val>-0.9082638025283814</left_val>
            <right_val>0.4428586065769196</right_val></_></_></trees>
      <stage_threshold>-1.0389629602432251</stage_threshold>
      <parent>4</parent>
      <next>-1</next></_>
    <_>
      <trees>
        <_>
          <_>
            <feature>
              <rects>
                <_>
                  0 2 8 14 -1.</_>
                <_>
                  0 2 4 7 2.</_>
                <_>
                  4 9 4 7 2.</_></rects>
              <tilted>0</tilted></feature>
            <threshold>-0.0448601208627224</threshold>
            <left_val>0.6391240954399109</left_val>
            <right_val>-0.6476566791534424</right_val></_></_>
        <_>
          <_>
            <feature>
              <rects>
                <_>
                  6 16 12 8 -1.</_>
                <_>
                  6 18 12 4 2.</_></rects>
              <tilted>0</tilted></feature>
            <threshold>0.0341304689645767</threshold>
            <left_val>-0.6959090232849121</left_val>
            <right_val>0.5534918904304504</right_val></_></_>
        <_>
          <_>
            <feature>
              <rects>
                <_>
                  6 11 9 4 -1.</_>
                <_>
                  6 11 9 2 2.</_></rects>
              <tilted>1</tilted></feature>
            <threshold>-0.0356000810861588</threshold>
            <left_val>0.5409827828407288</left_val>
            <right_val>-0.6989415884017944</right_val></_></_>
        <_>
          <_>
            <feature>
              <rects>
                <_>
                  19 3 3 2 -1.</_>
                <_>
                  20 4 1 2 3.</_></rects>
              <tilted>1</tilted></feature>
            <threshold>2.5251950137317181e-003</threshold>
            <left_val>0.1877385973930359</left_val>
            <right_val>-0.8704180717468262</right_val></_></_>
        <_>
          <_>
            <feature>
              <rects>
                <_>
                  5 3 2 3 -1.</_>
                <_>
                  4 4 2 1 3.</_></rects>
              <tilted>1</tilted></feature>
            <threshold>-1.1046360014006495e-003</threshold>
            <left_val>-0.9493613839149475</left_val>
            <right_val>0.3605796992778778</right_val></_></_></trees>
      <stage_threshold>-1.3124209642410278</stage_threshold>
      <parent>5</parent>
      <next>-1</next></_>
    <_>
      <trees>
        <_>
          <_>
            <feature>
              <rects>
                <_>
                  7 0 4 7 -1.</_>
                <_>
                  8 1 2 7 2.</_></rects>
              <tilted>1</tilted></feature>
            <threshold>0.0249264501035213</threshold>
            <left_val>-0.5402761101722717</left_val>
            <right_val>0.8417072892189026</right_val></_></_>
        <_>
          <_>
            <feature>
              <rects>
                <_>
                  11 10 6 3 -1.</_>
                <_>
                  13 11 2 1 9.</_></rects>
              <tilted>0</tilted></feature>
            <threshold>0.0188467800617218</threshold>
            <left_val>-0.1333335041999817</left_val>
            <right_val>0.7058025002479553</right_val></_></_>
        <_>
          <_>
            <feature>
              <rects>
                <_>
                  12 8 4 6 -1.</_>
                <_>
                  10 10 4 2 3.</_></rects>
              <tilted>1</tilted></feature>
            <threshold>0.0452607981860638</threshold>
            <left_val>-0.3972989916801453</left_val>
            <right_val>0.9223741888999939</right_val></_></_>
        <_>
          <_>
            <feature>
              <rects>
                <_>
                  16 2 8 19 -1.</_>
                <_>
                  18 2 4 19 2.</_></rects>
              <tilted>0</tilted></feature>
            <threshold>0.0295536499470472</threshold>
            <left_val>-0.4953423142433167</left_val>
            <right_val>0.5339589118957520</right_val></_></_>
        <_>
          <_>
            <feature>
              <rects>
                <_>
                  0 1 8 23 -1.</_>
                <_>
                  2 1 4 23 2.</_></rects>
              <tilted>0</tilted></feature>
            <threshold>0.0153800696134567</threshold>
            <left_val>-0.8375033140182495</left_val>
            <right_val>0.4031048119068146</right_val></_></_>
        <_>
          <_>
            <feature>
              <rects>
                <_>
                  19 17 2 3 -1.</_>
                <_>
                  18 18 2 1 3.</_></rects>
              <tilted>1</tilted></feature>
            <threshold>9.8292040638625622e-004</threshold>
            <left_val>0.2415253072977066</left_val>
            <right_val>-0.8876355886459351</right_val></_></_></trees>
      <stage_threshold>-1.0214799642562866</stage_threshold>
      <parent>6</parent>
      <next>-1</next></_>
    <_>
      <trees>
        <_>
          <_>
            <feature>
              <rects>
                <_>
                  4 0 16 8 -1.</_>
                <_>
                  4 2 16 4 2.</_></rects>
              <tilted>0</tilted></feature>
            <threshold>0.0522150509059429</threshold>
            <left_val>-0.5572751164436340</left_val>
            <right_val>0.8309291005134583</right_val></_></_>
        <_>
          <_>
            <feature>
              <rects>
                <_>
                  18 4 2 1 -1.</_>
                <_>
                  18 4 1 1 2.</_></rects>
              <tilted>1</tilted></feature>
            <threshold>-2.6067189173772931e-004</threshold>
            <left_val>-0.7294222116470337</left_val>
            <right_val>0.3145895898342133</right_val></_></_>
        <_>
          <_>
            <feature>
              <rects>
                <_>
                  6 4 1 2 -1.</_>
                <_>
                  6 4 1 1 2.</_></rects>
              <tilted>1</tilted></feature>
            <threshold>-4.3060680036433041e-004</threshold>
            <left_val>-0.9828944802284241</left_val>
            <right_val>0.3511041104793549</right_val></_></_></trees>
      <stage_threshold>-0.9355934262275696</stage_threshold>
      <parent>7</parent>
      <next>-1</next></_>
    <_>
      <trees>
        <_>
          <_>
            <feature>
              <rects>
                <_>
                  2 5 2 2 -1.</_>
                <_>
                  2 5 1 2 2.</_></rects>
              <tilted>1</tilted></feature>
            <threshold>-8.0979540944099426e-003</threshold>
            <left_val>0.8172144889831543</left_val>
            <right_val>-0.4389466941356659</right_val></_></_>
        <_>
          <_>
            <feature>
              <rects>
                <_>
                  20 16 2 4 -1.</_>
                <_>
                  19 17 2 2 2.</_></rects>
              <tilted>1</tilted></feature>
            <threshold>-1.3504360103979707e-003</threshold>
            <left_val>-0.8094996809959412</left_val>
            <right_val>0.3263210058212280</right_val></_></_>
        <_>
          <_>
            <feature>
              <rects>
                <_>
                  3 15 6 1 -1.</_>
                <_>
                  5 17 2 1 3.</_></rects>
              <tilted>1</tilted></feature>
            <threshold>-1.4476149808615446e-003</threshold>
            <left_val>-0.9300674796104431</left_val>
            <right_val>0.3057309091091156</right_val></_></_>
        <_>
          <_>
            <feature>
              <rects>
                <_>
                  10 22 14 2 -1.</_>
                <_>
                  17 22 7 1 2.</_>
                <_>
                  10 23 7 1 2.</_></rects>
              <tilted>0</tilted></feature>
            <threshold>-1.9581390370149165e-004</threshold>
            <left_val>0.2398208975791931</left_val>
            <right_val>-0.6815276145935059</right_val></_></_>
        <_>
          <_>
            <feature>
              <rects>
                <_>
                  3 15 6 1 -1.</_>
                <_>
                  5 17 2 1 3.</_></rects>
              <tilted>1</tilted></feature>
            <threshold>7.4737012619152665e-004</threshold>
            <left_val>0.4420675039291382</left_val>
            <right_val>-0.7599310874938965</right_val></_></_></trees>
      <stage_threshold>-0.3608047068119049</stage_threshold>
      <parent>8</parent>
      <next>-1</next></_>
    <_>
      <trees>
        <_>
          <_>
            <feature>
              <rects>
                <_>
                  6 0 12 2 -1.</_>
                <_>
                  6 1 12 1 2.</_></rects>
              <tilted>0</tilted></feature>
            <threshold>0.0119212996214628</threshold>
            <left_val>-0.4391945004463196</left_val>
            <right_val>0.7291799187660217</right_val></_></_>
        <_>
          <_>
            <feature>
              <rects>
                <_>
                  19 17 1 3 -1.</_>
                <_>
                  18 18 1 1 3.</_></rects>
              <tilted>1</tilted></feature>
            <threshold>-5.5906537454575300e-004</threshold>
            <left_val>-0.8225917816162109</left_val>
            <right_val>0.3244917988777161</right_val></_></_>
        <_>
          <_>
            <feature>
              <rects>
                <_>
                  8 22 8 1 -1.</_>
                <_>
                  10 22 4 1 2.</_></rects>
              <tilted>0</tilted></feature>
            <threshold>-6.2774261459708214e-004</threshold>
            <left_val>-0.9708427786827087</left_val>
            <right_val>0.2660194933414459</right_val></_></_></trees>
      <stage_threshold>0.0828289389610291</stage_threshold>
      <parent>9</parent>
      <next>-1</next></_>
    <_>
      <trees>
        <_>
          <_>
            <feature>
              <rects>
                <_>
                  8 21 8 1 -1.</_>
                <_>
                  10 21 4 1 2.</_></rects>
              <tilted>0</tilted></feature>
            <threshold>7.7988032717257738e-004</threshold>
            <left_val>0.4022974073886871</left_val>
            <right_val>-0.8731700778007507</right_val></_></_>
        <_>
          <_>
            <feature>
              <rects>
                <_>
                  20 6 4 12 -1.</_>
                <_>
                  21 6 2 12 2.</_></rects>
              <tilted>0</tilted></feature>
            <threshold>7.7125611715018749e-003</threshold>
            <left_val>-0.6717569231987000</left_val>
            <right_val>0.5691869854927063</right_val></_></_>
        <_>
          <_>
            <feature>
              <rects>
                <_>
                  8 15 6 4 -1.</_>
                <_>
                  8 16 6 2 2.</_></rects>
              <tilted>0</tilted></feature>
            <threshold>-0.0149534000083804</threshold>
            <left_val>0.8678361177444458</left_val>
            <right_val>-0.3819550871849060</right_val></_></_>
        <_>
          <_>
            <feature>
              <rects>
                <_>
                  19 17 2 3 -1.</_>
                <_>
                  18 18 2 1 3.</_></rects>
              <tilted>1</tilted></feature>
            <threshold>1.6179509693756700e-003</threshold>
            <left_val>0.3140896856784821</left_val>
            <right_val>-0.9722428917884827</right_val></_></_></trees>
      <stage_threshold>-0.3827135860919952</stage_threshold>
      <parent>10</parent>
      <next>-1</next></_>
    <_>
      <trees>
        <_>
          <_>
            <feature>
              <rects>
                <_>
                  10 11 4 2 -1.</_>
                <_>
                  10 11 2 1 2.</_>
                <_>
                  12 12 2 1 2.</_></rects>
              <tilted>0</tilted></feature>
            <threshold>3.5969188902527094e-003</threshold>
            <left_val>-0.3949284851551056</left_val>
            <right_val>0.7703093886375427</right_val></_></_>
        <_>
          <_>
            <feature>
              <rects>
                <_>
                  20 16 4 3 -1.</_>
                <_>
                  20 16 2 3 2.</_></rects>
              <tilted>1</tilted></feature>
            <threshold>0.0148696498945355</threshold>
            <left_val>-0.4889406859874725</left_val>
            <right_val>0.6171336174011231</right_val></_></_>
        <_>
          <_>
            <feature>
              <rects>
                <_>
                  5 16 3 2 -1.</_>
                <_>
                  6 17 1 2 3.</_></rects>
              <tilted>1</tilted></feature>
            <threshold>-5.5285287089645863e-004</threshold>
            <left_val>-0.9028223156929016</left_val>
            <right_val>0.3299851119518280</right_val></_></_>
        <_>
          <_>
            <feature>
              <rects>
                <_>
                  16 2 4 1 -1.</_>
                <_>
                  17 3 2 1 2.</_></rects>
              <tilted>1</tilted></feature>
            <threshold>-7.2675890987738967e-004</threshold>
            <left_val>-0.7358633875846863</left_val>
            <right_val>0.2114799022674561</right_val></_></_></trees>
      <stage_threshold>-0.4691373109817505</stage_threshold>
      <parent>11</parent>
      <next>-1</next></_>
    <_>
      <trees>
        <_>
          <_>
            <feature>
              <rects>
                <_>
                  0 6 2 12 -1.</_>
                <_>
                  1 6 1 12 2.</_></rects>
              <tilted>0</tilted></feature>
            <threshold>9.3598263338208199e-003</threshold>
            <left_val>-0.4850535094738007</left_val>
            <right_val>0.6253157854080200</right_val></_></_>
        <_>
          <_>
            <feature>
              <rects>
                <_>
                  13 16 1 2 -1.</_>
                <_>
                  13 17 1 1 2.</_></rects>
              <tilted>0</tilted></feature>
            <threshold>3.4168330021202564e-003</threshold>
            <left_val>-0.1088484004139900</left_val>
            <right_val>0.7122585773468018</right_val></_></_>
        <_>
          <_>
            <feature>
              <rects>
                <_>
                  12 15 1 2 -1.</_>
                <_>
                  12 15 1 1 2.</_></rects>
              <tilted>1</tilted></feature>
            <threshold>2.1138959564268589e-003</threshold>
            <left_val>-0.4285930097103119</left_val>
            <right_val>0.6440160274505615</right_val></_></_>
        <_>
          <_>
            <feature>
              <rects>
                <_>
                  16 2 4 1 -1.</_>
                <_>
                  17 3 2 1 2.</_></rects>
              <tilted>1</tilted></feature>
            <threshold>1.2101719621568918e-003</threshold>
            <left_val>0.3439489006996155</left_val>
            <right_val>-0.7999216914176941</right_val></_></_>
        <_>
          <_>
            <feature>
              <rects>
                <_>
                  8 22 1 2 -1.</_>
                <_>
                  8 23 1 1 2.</_></rects>
              <tilted>0</tilted></feature>
            <threshold>-9.0482732048258185e-005</threshold>
            <left_val>0.5118359923362732</left_val>
            <right_val>-0.6005815863609314</right_val></_></_>
        <_>
          <_>
            <feature>
              <rects>
                <_>
                  5 12 18 10 -1.</_>
                <_>
                  14 12 9 5 2.</_>
                <_>
                  5 17 9 5 2.</_></rects>
              <tilted>0</tilted></feature>
            <threshold>0.1113623976707459</threshold>
            <left_val>0.0809248015284538</left_val>
            <right_val>-0.9182227253913879</right_val></_></_>
        <_>
          <_>
            <feature>
              <rects>
                <_>
                  8 2 1 4 -1.</_>
                <_>
                  7 3 1 2 2.</_></rects>
              <tilted>1</tilted></feature>
            <threshold>1.2346990406513214e-003</threshold>
            <left_val>0.2818672060966492</left_val>
            <right_val>-0.8732029199600220</right_val></_></_>
        <_>
          <_>
            <feature>
              <rects>
                <_>
                  10 10 6 3 -1.</_>
                <_>
                  12 11 2 1 9.</_></rects>
              <tilted>0</tilted></feature>
            <threshold>0.0187899991869926</threshold>
            <left_val>-0.3199054896831513</left_val>
            <right_val>0.6505866050720215</right_val></_></_>
        <_>
          <_>
            <feature>
              <rects>
                <_>
                  2 12 16 10 -1.</_>
                <_>
                  2 12 8 5 2.</_>
                <_>
                  10 17 8 5 2.</_></rects>
              <tilted>0</tilted></feature>
            <threshold>-5.5812520440667868e-004</threshold>
            <left_val>-0.8819510936737061</left_val>
            <right_val>0.2999697923660278</right_val></_></_></trees>
      <stage_threshold>-1.0124249458312988</stage_threshold>
      <parent>12</parent>
      <next>-1</next></_></stages></logo2detector>
</opencv_storage>
